<?xml version="1.0"?>
<opencv_storage>
  <cascade>
    <stageType>BOOST</stageType>
    <featureType>HAAR</featureType>
    <height>36</height>
    <width>36</width>
    <stageParams>
      <boostType>GAB</boostType>
      <minHitRate>9.9500000476837158e-001</minHitRate>
      <maxFalseAlarm>5.0000000000000000e-001</maxFalseAlarm>
      <weightTrimRate>9.4999998807907104e-001</weightTrimRate>
      <maxDepth>1</maxDepth>
      <maxWeakCount>100</maxWeakCount></stageParams>
    <featureParams>
      <maxCatCount>0</maxCatCount>
      <featSize>1</featSize>
      <mode>BASIC</mode></featureParams>
    <stageNum>13</stageNum>
    <stages>
      <!-- stage 0 -->
      <_>
        <maxWeakCount>4</maxWeakCount>
        <stageThreshold>-6.7455822229385376e-001</stageThreshold>
        <weakClassifiers>
          <_>
            <internalNodes>
              0 -1 36 9.4820233061909676e-004</internalNodes>
            <leafValues>
              -7.5533109903335571e-001 4.5827633142471313e-001</leafValues></_>
          <_>
            <internalNodes>
              0 -1 21 -4.9313537601847202e-005</internalNodes>
            <leafValues>
              3.6989170312881470e-001 -8.0880147218704224e-001</leafValues></_>
          <_>
            <internalNodes>
              0 -1 55 2.8293579816818237e-005</internalNodes>
            <leafValues>
              -7.5162166357040405e-001 4.0622031688690186e-001</leafValues></_>
          <_>
            <internalNodes>
              0 -1 52 5.9290556237101555e-003</internalNodes>
            <leafValues>
              -5.9787678718566895e-001 4.8335400223731995e-001</leafValues></_></weakClassifiers></_>
      <!-- stage 1 -->
      <_>
        <maxWeakCount>3</maxWeakCount>
        <stageThreshold>-7.5512188673019409e-001</stageThreshold>
        <weakClassifiers>
          <_>
            <internalNodes>
              0 -1 4 -3.6652559041976929e-001</internalNodes>
            <leafValues>
              4.3622449040412903e-001 -8.1145584583282471e-001</leafValues></_>
          <_>
            <internalNodes>
              0 -1 29 -5.4530438501387835e-004</internalNodes>
            <leafValues>
              6.3001579046249390e-001 -5.8024036884307861e-001</leafValues></_>
          <_>
            <internalNodes>
              0 -1 49 -1.6900456976145506e-003</internalNodes>
            <leafValues>
              6.5737646818161011e-001 -5.7368183135986328e-001</leafValues></_></weakClassifiers></_>
      <!-- stage 2 -->
      <_>
        <maxWeakCount>6</maxWeakCount>
        <stageThreshold>-1.1127980947494507e+000</stageThreshold>
        <weakClassifiers>
          <_>
            <internalNodes>
              0 -1 32 -1.2301537208259106e-003</internalNodes>
            <leafValues>
              2.7355277538299561e-001 -7.8137654066085815e-001</leafValues></_>
          <_>
            <internalNodes>
              0 -1 17 4.6280390961328521e-005</internalNodes>
            <leafValues>
              -7.4780303239822388e-001 3.2154729962348938e-001</leafValues></_>
          <_>
            <internalNodes>
              0 -1 68 -3.2393302535638213e-004</internalNodes>
            <leafValues>
              3.1049114465713501e-001 -7.3357248306274414e-001</leafValues></_>
          <_>
            <internalNodes>
              0 -1 38 -1.3304581443662755e-005</internalNodes>
            <leafValues>
              3.0928355455398560e-001 -7.1036690473556519e-001</leafValues></_>
          <_>
            <internalNodes>
              0 -1 54 -8.8997241109609604e-003</internalNodes>
            <leafValues>
              4.6462398767471313e-001 -4.9702721834182739e-001</leafValues></_>
          <_>
            <internalNodes>
              0 -1 59 5.3030453273095191e-005</internalNodes>
            <leafValues>
              -6.7888289690017700e-001 3.7353292107582092e-001</leafValues></_></weakClassifiers></_>
      <!-- stage 3 -->
      <_>
        <maxWeakCount>6</maxWeakCount>
        <stageThreshold>-1.1717451810836792e+000</stageThreshold>
        <weakClassifiers>
          <_>
            <internalNodes>
              0 -1 26 -7.4465939542278647e-004</internalNodes>
            <leafValues>
              4.5195728540420532e-001 -5.5849057435989380e-001</leafValues></_>
          <_>
            <internalNodes>
              0 -1 2 1.2685011824942194e-005</internalNodes>
            <leafValues>
              2.8683480620384216e-001 -8.8012528419494629e-001</leafValues></_>
          <_>
            <internalNodes>
              0 -1 19 6.7462584411259741e-005</internalNodes>
            <leafValues>
              -8.0474215745925903e-001 2.5561961531639099e-001</leafValues></_>
          <_>
            <internalNodes>
              0 -1 22 -7.1613962063565850e-005</internalNodes>
            <leafValues>
              3.0610120296478271e-001 -7.5260162353515625e-001</leafValues></_>
          <_>
            <internalNodes>
              0 -1 60 4.3623243982437998e-005</internalNodes>
            <leafValues>
              -6.8456047773361206e-001 2.9854696989059448e-001</leafValues></_>
          <_>
            <internalNodes>
              0 -1 37 -2.8740572743117809e-003</internalNodes>
            <leafValues>
              3.8971033692359924e-001 -5.6108289957046509e-001</leafValues></_></weakClassifiers></_>
      <!-- stage 4 -->
      <_>
        <maxWeakCount>5</maxWeakCount>
        <stageThreshold>-7.9585838317871094e-001</stageThreshold>
        <weakClassifiers>
          <_>
            <internalNodes>
              0 -1 1 5.4418114814325236e-006</internalNodes>
            <leafValues>
              1.1660777032375336e-001 -9.5918369293212891e-001</leafValues></_>
          <_>
            <internalNodes>
              0 -1 3 -5.3170181810855865e-002</internalNodes>
            <leafValues>
              2.6519286632537842e-001 -7.7276587486267090e-001</leafValues></_>
          <_>
            <internalNodes>
              0 -1 56 -5.9397125369287096e-006</internalNodes>
            <leafValues>
              -8.5556298494338989e-001 2.8814128041267395e-001</leafValues></_>
          <_>
            <internalNodes>
              0 -1 9 1.0571151506155729e-003</internalNodes>
            <leafValues>
              -5.4377794265747070e-001 4.1513124108314514e-001</leafValues></_>
          <_>
            <internalNodes>
              0 -1 18 3.6611520044971257e-005</internalNodes>
            <leafValues>
              -7.4436163902282715e-001 3.0073145031929016e-001</leafValues></_></weakClassifiers></_>
      <!-- stage 5 -->
      <_>
        <maxWeakCount>5</maxWeakCount>
        <stageThreshold>-1.6000217199325562e+000</stageThreshold>
        <weakClassifiers>
          <_>
            <internalNodes>
              0 -1 1 -6.4791370277816895e-006</internalNodes>
            <leafValues>
              -8.5000002384185791e-001 2.5477707386016846e-001</leafValues></_>
          <_>
            <internalNodes>
              0 -1 56 4.0461392927682027e-005</internalNodes>
            <leafValues>
              3.9852219820022583e-001 -6.1496883630752563e-001</leafValues></_>
          <_>
            <internalNodes>
              0 -1 15 -2.0725693320855498e-004</internalNodes>
            <leafValues>
              -8.3147943019866943e-001 2.9250872135162354e-001</leafValues></_>
          <_>
            <internalNodes>
              0 -1 41 6.1222540352900978e-006</internalNodes>
            <leafValues>
              -6.8998330831527710e-001 3.0179926753044128e-001</leafValues></_>
          <_>
            <internalNodes>
              0 -1 35 2.9421156796161085e-005</internalNodes>
            <leafValues>
              2.6242172718048096e-001 -7.9986023902893066e-001</leafValues></_></weakClassifiers></_>
      <!-- stage 6 -->
      <_>
        <maxWeakCount>6</maxWeakCount>
        <stageThreshold>-8.5209023952484131e-001</stageThreshold>
        <weakClassifiers>
          <_>
            <internalNodes>
              0 -1 16 -6.4917979761958122e-004</internalNodes>
            <leafValues>
              3.4718102216720581e-001 -6.0337555408477783e-001</leafValues></_>
          <_>
            <internalNodes>
              0 -1 66 -1.2490270659327507e-002</internalNodes>
            <leafValues>
              4.7848230600357056e-001 -4.5065888762474060e-001</leafValues></_>
          <_>
            <internalNodes>
              0 -1 11 -5.9489870909601450e-004</internalNodes>
            <leafValues>
              5.3767162561416626e-001 -3.9163541793823242e-001</leafValues></_>
          <_>
            <internalNodes>
              0 -1 43 -2.2108582925284281e-005</internalNodes>
            <leafValues>
              3.3394697308540344e-001 -6.6021835803985596e-001</leafValues></_>
          <_>
            <internalNodes>
              0 -1 0 -6.0369625316525344e-006</internalNodes>
            <leafValues>
              -8.1846928596496582e-001 2.8851112723350525e-001</leafValues></_>
          <_>
            <internalNodes>
              0 -1 0 1.7303751519648358e-005</internalNodes>
            <leafValues>
              1.4896072447299957e-001 -9.5782458782196045e-001</leafValues></_></weakClassifiers></_>
      <!-- stage 7 -->
      <_>
        <maxWeakCount>7</maxWeakCount>
        <stageThreshold>-1.6540155410766602e+000</stageThreshold>
        <weakClassifiers>
          <_>
            <internalNodes>
              0 -1 44 -7.0306986570358276e-002</internalNodes>
            <leafValues>
              2.3786982893943787e-001 -6.9369369745254517e-001</leafValues></_>
          <_>
            <internalNodes>
              0 -1 12 -5.9999954828526825e-005</internalNodes>
            <leafValues>
              2.9385697841644287e-001 -6.7450392246246338e-001</leafValues></_>
          <_>
            <internalNodes>
              0 -1 30 -4.5984373427927494e-003</internalNodes>
            <leafValues>
              5.0247412919998169e-001 -4.2361611127853394e-001</leafValues></_>
          <_>
            <internalNodes>
              0 -1 33 6.3932466218830086e-006</internalNodes>
            <leafValues>
              3.0890780687332153e-001 -8.3217293024063110e-001</leafValues></_>
          <_>
            <internalNodes>
              0 -1 51 -4.3922831537202001e-004</internalNodes>
            <leafValues>
              2.6274508237838745e-001 -6.2631016969680786e-001</leafValues></_>
          <_>
            <internalNodes>
              0 -1 69 -1.6837150906212628e-004</internalNodes>
            <leafValues>
              -8.0890536308288574e-001 2.0461964607238770e-001</leafValues></_>
          <_>
            <internalNodes>
              0 -1 67 3.8399832556024194e-004</internalNodes>
            <leafValues>
              -6.4059698581695557e-001 2.9574501514434814e-001</leafValues></_></weakClassifiers></_>
      <!-- stage 8 -->
      <_>
        <maxWeakCount>7</maxWeakCount>
        <stageThreshold>-1.4868794679641724e+000</stageThreshold>
        <weakClassifiers>
          <_>
            <internalNodes>
              0 -1 42 5.9335019614081830e-005</internalNodes>
            <leafValues>
              -7.3104435205459595e-001 1.8743228912353516e-001</leafValues></_>
          <_>
            <internalNodes>
              0 -1 24 -5.6296375987585634e-005</internalNodes>
            <leafValues>
              -7.9982018470764160e-001 2.0045214891433716e-001</leafValues></_>
          <_>
            <internalNodes>
              0 -1 24 6.5838423324748874e-005</internalNodes>
            <leafValues>
              3.7848347425460815e-001 -7.2345858812332153e-001</leafValues></_>
          <_>
            <internalNodes>
              0 -1 61 -2.6750270626507699e-004</internalNodes>
            <leafValues>
              2.7162978053092957e-001 -6.1871868371963501e-001</leafValues></_>
          <_>
            <internalNodes>
              0 -1 65 -2.5038576495717280e-005</internalNodes>
            <leafValues>
              2.5013333559036255e-001 -7.4896323680877686e-001</leafValues></_>
          <_>
            <internalNodes>
              0 -1 34 2.6001140940934420e-004</internalNodes>
            <leafValues>
              -4.0410152077674866e-001 4.5418372750282288e-001</leafValues></_>
          <_>
            <internalNodes>
              0 -1 48 2.6550740585662425e-004</internalNodes>
            <leafValues>
              -4.2127254605293274e-001 4.6071103215217590e-001</leafValues></_></weakClassifiers></_>
      <!-- stage 9 -->
      <_>
        <maxWeakCount>6</maxWeakCount>
        <stageThreshold>-1.0197784900665283e+000</stageThreshold>
        <weakClassifiers>
          <_>
            <internalNodes>
              0 -1 62 -1.6886478988453746e-005</internalNodes>
            <leafValues>
              1.6614420711994171e-001 -7.4736839532852173e-001</leafValues></_>
          <_>
            <internalNodes>
              0 -1 27 3.7858751602470875e-004</internalNodes>
            <leafValues>
              -5.1089763641357422e-001 3.6541610956192017e-001</leafValues></_>
          <_>
            <internalNodes>
              0 -1 47 -1.2309470548643731e-005</internalNodes>
            <leafValues>
              3.1388825178146362e-001 -5.6231671571731567e-001</leafValues></_>
          <_>
            <internalNodes>
              0 -1 7 -5.5598766266484745e-006</internalNodes>
            <leafValues>
              3.2591554522514343e-001 -6.3365912437438965e-001</leafValues></_>
          <_>
            <internalNodes>
              0 -1 46 2.8067085891962051e-002</internalNodes>
            <leafValues>
              -4.3363785743713379e-001 4.1883692145347595e-001</leafValues></_>
          <_>
            <internalNodes>
              0 -1 53 3.9267766987904906e-004</internalNodes>
            <leafValues>
              2.5170388817787170e-001 -7.7419984340667725e-001</leafValues></_></weakClassifiers></_>
      <!-- stage 10 -->
      <_>
        <maxWeakCount>8</maxWeakCount>
        <stageThreshold>-1.2090197801589966e+000</stageThreshold>
        <weakClassifiers>
          <_>
            <internalNodes>
              0 -1 14 -6.0965185984969139e-003</internalNodes>
            <leafValues>
              8.9954340457916260e-001 -3.8132572174072266e-001</leafValues></_>
          <_>
            <internalNodes>
              0 -1 24 -6.1332444602157921e-005</internalNodes>
            <leafValues>
              -7.9687613248825073e-001 2.9209738969802856e-001</leafValues></_>
          <_>
            <internalNodes>
              0 -1 13 1.2408726615831256e-004</internalNodes>
            <leafValues>
              -5.6888562440872192e-001 3.7053266167640686e-001</leafValues></_>
          <_>
            <internalNodes>
              0 -1 25 2.8939376352354884e-004</internalNodes>
            <leafValues>
              3.4700295329093933e-001 -7.7005839347839355e-001</leafValues></_>
          <_>
            <internalNodes>
              0 -1 63 -3.4143631637562066e-005</internalNodes>
            <leafValues>
              -7.1993321180343628e-001 2.0975708961486816e-001</leafValues></_>
          <_>
            <internalNodes>
              0 -1 57 4.3135059968335554e-006</internalNodes>
            <leafValues>
              2.0033203065395355e-001 -7.6064902544021606e-001</leafValues></_>
          <_>
            <internalNodes>
              0 -1 33 -6.9109678406675812e-006</internalNodes>
            <leafValues>
              -5.2087998390197754e-001 3.0080309510231018e-001</leafValues></_>
          <_>
            <internalNodes>
              0 -1 45 1.3776100240647793e-004</internalNodes>
            <leafValues>
              -4.9173960089683533e-001 3.6206558346748352e-001</leafValues></_></weakClassifiers></_>
      <!-- stage 11 -->
      <_>
        <maxWeakCount>10</maxWeakCount>
        <stageThreshold>-1.4556157588958740e+000</stageThreshold>
        <weakClassifiers>
          <_>
            <internalNodes>
              0 -1 28 -2.3906310088932514e-003</internalNodes>
            <leafValues>
              5.5784064531326294e-001 -4.5012164115905762e-001</leafValues></_>
          <_>
            <internalNodes>
              0 -1 10 -8.3684884011745453e-003</internalNodes>
            <leafValues>
              5.1065868139266968e-001 -4.1239264607429504e-001</leafValues></_>
          <_>
            <internalNodes>
              0 -1 20 2.4150509852916002e-004</internalNodes>
            <leafValues>
              -6.3597381114959717e-001 2.8627300262451172e-001</leafValues></_>
          <_>
            <internalNodes>
              0 -1 55 5.8181826716463547e-006</internalNodes>
            <leafValues>
              -6.1711168289184570e-001 3.0828770995140076e-001</leafValues></_>
          <_>
            <internalNodes>
              0 -1 55 9.7933305369224399e-005</internalNodes>
            <leafValues>
              3.0711999535560608e-001 -6.3981503248214722e-001</leafValues></_>
          <_>
            <internalNodes>
              0 -1 5 -4.2832992970943451e-002</internalNodes>
            <leafValues>
              3.3769690990447998e-001 -4.4713166356086731e-001</leafValues></_>
          <_>
            <internalNodes>
              0 -1 23 1.0709550697356462e-003</internalNodes>
            <leafValues>
              2.5728288292884827e-001 -6.5786772966384888e-001</leafValues></_>
          <_>
            <internalNodes>
              0 -1 6 6.6105576479458250e-006</internalNodes>
            <leafValues>
              1.5562279522418976e-001 -8.3254653215408325e-001</leafValues></_>
          <_>
            <internalNodes>
              0 -1 40 9.6581774414516985e-005</internalNodes>
            <leafValues>
              -5.6544667482376099e-001 2.3739200830459595e-001</leafValues></_>
          <_>
            <internalNodes>
              0 -1 60 1.6219561075558886e-005</internalNodes>
            <leafValues>
              -6.8475306034088135e-001 1.8214753270149231e-001</leafValues></_></weakClassifiers></_>
      <!-- stage 12 -->
      <_>
        <maxWeakCount>7</maxWeakCount>
        <stageThreshold>-1.0383538007736206e+000</stageThreshold>
        <weakClassifiers>
          <_>
            <internalNodes>
              0 -1 39 -1.3357575880945660e-005</internalNodes>
            <leafValues>
              9.4339624047279358e-002 -7.7935945987701416e-001</leafValues></_>
          <_>
            <internalNodes>
              0 -1 64 -6.8146640842314810e-005</internalNodes>
            <leafValues>
              -7.0597100257873535e-001 2.5325784087181091e-001</leafValues></_>
          <_>
            <internalNodes>
              0 -1 31 -1.2445941138139460e-005</internalNodes>
            <leafValues>
              2.8970289230346680e-001 -7.3043245077133179e-001</leafValues></_>
          <_>
            <internalNodes>
              0 -1 8 -1.0636632396199275e-005</internalNodes>
            <leafValues>
              3.2407012581825256e-001 -5.5635237693786621e-001</leafValues></_>
          <_>
            <internalNodes>
              0 -1 58 -1.1075443762820214e-004</internalNodes>
            <leafValues>
              -7.5618326663970947e-001 2.4456501007080078e-001</leafValues></_>
          <_>
            <internalNodes>
              0 -1 58 -5.8133118727710098e-006</internalNodes>
            <leafValues>
              3.6153689026832581e-001 -6.7085164785385132e-001</leafValues></_>
          <_>
            <internalNodes>
              0 -1 50 3.5589902836363763e-005</internalNodes>
            <leafValues>
              -5.2788656949996948e-001 3.2712021470069885e-001</leafValues></_></weakClassifiers></_></stages>
    <features>
      <_>
        <rects>
          <_>
            0 0 1 2 -1.</_>
          <_>
            0 1 1 1 2.</_></rects>
        <tilted>0</tilted></_>
      <_>
        <rects>
          <_>
            0 0 2 2 -1.</_>
          <_>
            0 1 2 1 2.</_></rects>
        <tilted>0</tilted></_>
      <_>
        <rects>
          <_>
            0 0 4 3 -1.</_>
          <_>
            2 0 2 3 2.</_></rects>
        <tilted>0</tilted></_>
      <_>
        <rects>
          <_>
            0 0 7 32 -1.</_>
          <_>
            0 16 7 16 2.</_></rects>
        <tilted>0</tilted></_>
      <_>
        <rects>
          <_>
            0 0 29 36 -1.</_>
          <_>
            0 18 29 18 2.</_></rects>
        <tilted>0</tilted></_>
      <_>
        <rects>
          <_>
            0 1 36 20 -1.</_>
          <_>
            12 1 12 20 3.</_></rects>
        <tilted>0</tilted></_>
      <_>
        <rects>
          <_>
            0 3 1 4 -1.</_>
          <_>
            0 5 1 2 2.</_></rects>
        <tilted>0</tilted></_>
      <_>
        <rects>
          <_>
            0 3 6 5 -1.</_>
          <_>
            3 3 3 5 2.</_></rects>
        <tilted>0</tilted></_>
      <_>
        <rects>
          <_>
            0 18 1 3 -1.</_>
          <_>
            0 19 1 1 3.</_></rects>
        <tilted>0</tilted></_>
      <_>
        <rects>
          <_>
            0 23 4 8 -1.</_>
          <_>
            0 23 2 4 2.</_>
          <_>
            2 27 2 4 2.</_></rects>
        <tilted>0</tilted></_>
      <_>
        <rects>
          <_>
            0 24 20 6 -1.</_>
          <_>
            0 26 20 2 3.</_></rects>
        <tilted>0</tilted></_>
      <_>
        <rects>
          <_>
            0 25 2 3 -1.</_>
          <_>
            0 26 2 1 3.</_></rects>
        <tilted>0</tilted></_>
      <_>
        <rects>
          <_>
            0 27 2 3 -1.</_>
          <_>
            0 28 2 1 3.</_></rects>
        <tilted>0</tilted></_>
      <_>
        <rects>
          <_>
            0 29 2 2 -1.</_>
          <_>
            0 29 1 1 2.</_>
          <_>
            1 30 1 1 2.</_></rects>
        <tilted>0</tilted></_>
      <_>
        <rects>
          <_>
            0 29 3 3 -1.</_>
          <_>
            1 29 1 3 3.</_></rects>
        <tilted>0</tilted></_>
      <_>
        <rects>
          <_>
            0 30 1 3 -1.</_>
          <_>
            0 31 1 1 3.</_></rects>
        <tilted>0</tilted></_>
      <_>
        <rects>
          <_>
            0 30 2 3 -1.</_>
          <_>
            0 31 2 1 3.</_></rects>
        <tilted>0</tilted></_>
      <_>
        <rects>
          <_>
            0 31 2 2 -1.</_>
          <_>
            0 31 1 1 2.</_>
          <_>
            1 32 1 1 2.</_></rects>
        <tilted>0</tilted></_>
      <_>
        <rects>
          <_>
            0 31 2 2 -1.</_>
          <_>
            0 32 2 1 2.</_></rects>
        <tilted>0</tilted></_>
      <_>
        <rects>
          <_>
            0 32 2 4 -1.</_>
          <_>
            0 32 1 2 2.</_>
          <_>
            1 34 1 2 2.</_></rects>
        <tilted>0</tilted></_>
      <_>
        <rects>
          <_>
            0 32 2 4 -1.</_>
          <_>
            0 34 2 2 2.</_></rects>
        <tilted>0</tilted></_>
      <_>
        <rects>
          <_>
            0 33 2 1 -1.</_>
          <_>
            1 33 1 1 2.</_></rects>
        <tilted>0</tilted></_>
      <_>
        <rects>
          <_>
            0 33 2 3 -1.</_>
          <_>
            1 33 1 3 2.</_></rects>
        <tilted>0</tilted></_>
      <_>
        <rects>
          <_>
            0 33 15 2 -1.</_>
          <_>
            0 34 15 1 2.</_></rects>
        <tilted>0</tilted></_>
      <_>
        <rects>
          <_>
            0 34 3 1 -1.</_>
          <_>
            1 34 1 1 3.</_></rects>
        <tilted>0</tilted></_>
      <_>
        <rects>
          <_>
            0 34 3 2 -1.</_>
          <_>
            1 34 1 2 3.</_></rects>
        <tilted>0</tilted></_>
      <_>
        <rects>
          <_>
            1 20 2 6 -1.</_>
          <_>
            1 20 1 3 2.</_>
          <_>
            2 23 1 3 2.</_></rects>
        <tilted>0</tilted></_>
      <_>
        <rects>
          <_>
            1 22 4 3 -1.</_>
          <_>
            1 23 4 1 3.</_></rects>
        <tilted>0</tilted></_>
      <_>
        <rects>
          <_>
            1 27 1 6 -1.</_>
          <_>
            1 29 1 2 3.</_></rects>
        <tilted>0</tilted></_>
      <_>
        <rects>
          <_>
            1 30 1 3 -1.</_>
          <_>
            1 31 1 1 3.</_></rects>
        <tilted>0</tilted></_>
      <_>
        <rects>
          <_>
            1 30 34 2 -1.</_>
          <_>
            1 31 34 1 2.</_></rects>
        <tilted>0</tilted></_>
      <_>
        <rects>
          <_>
            1 31 2 2 -1.</_>
          <_>
            1 31 1 1 2.</_>
          <_>
            2 32 1 1 2.</_></rects>
        <tilted>0</tilted></_>
      <_>
        <rects>
          <_>
            1 35 16 1 -1.</_>
          <_>
            9 35 8 1 2.</_></rects>
        <tilted>0</tilted></_>
      <_>
        <rects>
          <_>
            2 1 1 4 -1.</_>
          <_>
            2 3 1 2 2.</_></rects>
        <tilted>0</tilted></_>
      <_>
        <rects>
          <_>
            2 18 2 4 -1.</_>
          <_>
            2 18 1 2 2.</_>
          <_>
            3 20 1 2 2.</_></rects>
        <tilted>0</tilted></_>
      <_>
        <rects>
          <_>
            2 34 2 2 -1.</_>
          <_>
            3 34 1 2 2.</_></rects>
        <tilted>0</tilted></_>
      <_>
        <rects>
          <_>
            2 34 12 2 -1.</_>
          <_>
            2 35 12 1 2.</_></rects>
        <tilted>0</tilted></_>
      <_>
        <rects>
          <_>
            3 28 30 1 -1.</_>
          <_>
            13 28 10 1 3.</_></rects>
        <tilted>0</tilted></_>
      <_>
        <rects>
          <_>
            3 35 2 1 -1.</_>
          <_>
            4 35 1 1 2.</_></rects>
        <tilted>0</tilted></_>
      <_>
        <rects>
          <_>
            4 34 2 2 -1.</_>
          <_>
            5 34 1 2 2.</_></rects>
        <tilted>0</tilted></_>
      <_>
        <rects>
          <_>
            5 35 6 1 -1.</_>
          <_>
            7 35 2 1 3.</_></rects>
        <tilted>0</tilted></_>
      <_>
        <rects>
          <_>
            6 35 3 1 -1.</_>
          <_>
            7 35 1 1 3.</_></rects>
        <tilted>0</tilted></_>
      <_>
        <rects>
          <_>
            7 32 1 3 -1.</_>
          <_>
            7 33 1 1 3.</_></rects>
        <tilted>0</tilted></_>
      <_>
        <rects>
          <_>
            10 35 2 1 -1.</_>
          <_>
            11 35 1 1 2.</_></rects>
        <tilted>0</tilted></_>
      <_>
        <rects>
          <_>
            12 0 15 22 -1.</_>
          <_>
            12 11 15 11 2.</_></rects>
        <tilted>0</tilted></_>
      <_>
        <rects>
          <_>
            16 31 3 2 -1.</_>
          <_>
            17 31 1 2 3.</_></rects>
        <tilted>0</tilted></_>
      <_>
        <rects>
          <_>
            22 1 14 22 -1.</_>
          <_>
            29 1 7 22 2.</_></rects>
        <tilted>0</tilted></_>
      <_>
        <rects>
          <_>
            22 34 3 1 -1.</_>
          <_>
            23 34 1 1 3.</_></rects>
        <tilted>0</tilted></_>
      <_>
        <rects>
          <_>
            22 34 2 2 -1.</_>
          <_>
            22 35 2 1 2.</_></rects>
        <tilted>0</tilted></_>
      <_>
        <rects>
          <_>
            22 34 14 2 -1.</_>
          <_>
            22 34 7 1 2.</_>
          <_>
            29 35 7 1 2.</_></rects>
        <tilted>0</tilted></_>
      <_>
        <rects>
          <_>
            25 1 8 1 -1.</_>
          <_>
            29 1 4 1 2.</_></rects>
        <tilted>0</tilted></_>
      <_>
        <rects>
          <_>
            25 34 10 2 -1.</_>
          <_>
            25 34 5 1 2.</_>
          <_>
            30 35 5 1 2.</_></rects>
        <tilted>0</tilted></_>
      <_>
        <rects>
          <_>
            26 14 10 11 -1.</_>
          <_>
            31 14 5 11 2.</_></rects>
        <tilted>0</tilted></_>
      <_>
        <rects>
          <_>
            26 35 10 1 -1.</_>
          <_>
            31 35 5 1 2.</_></rects>
        <tilted>0</tilted></_>
      <_>
        <rects>
          <_>
            28 16 8 20 -1.</_>
          <_>
            28 16 4 10 2.</_>
          <_>
            32 26 4 10 2.</_></rects>
        <tilted>0</tilted></_>
      <_>
        <rects>
          <_>
            29 35 2 1 -1.</_>
          <_>
            30 35 1 1 2.</_></rects>
        <tilted>0</tilted></_>
      <_>
        <rects>
          <_>
            30 0 6 1 -1.</_>
          <_>
            33 0 3 1 2.</_></rects>
        <tilted>0</tilted></_>
      <_>
        <rects>
          <_>
            30 0 3 2 -1.</_>
          <_>
            30 1 3 1 2.</_></rects>
        <tilted>0</tilted></_>
      <_>
        <rects>
          <_>
            30 35 2 1 -1.</_>
          <_>
            31 35 1 1 2.</_></rects>
        <tilted>0</tilted></_>
      <_>
        <rects>
          <_>
            31 32 3 3 -1.</_>
          <_>
            31 33 3 1 3.</_></rects>
        <tilted>0</tilted></_>
      <_>
        <rects>
          <_>
            32 33 1 3 -1.</_>
          <_>
            32 34 1 1 3.</_></rects>
        <tilted>0</tilted></_>
      <_>
        <rects>
          <_>
            33 28 3 7 -1.</_>
          <_>
            34 28 1 7 3.</_></rects>
        <tilted>0</tilted></_>
      <_>
        <rects>
          <_>
            33 31 3 3 -1.</_>
          <_>
            33 32 3 1 3.</_></rects>
        <tilted>0</tilted></_>
      <_>
        <rects>
          <_>
            33 33 2 2 -1.</_>
          <_>
            33 33 1 1 2.</_>
          <_>
            34 34 1 1 2.</_></rects>
        <tilted>0</tilted></_>
      <_>
        <rects>
          <_>
            34 30 2 2 -1.</_>
          <_>
            34 31 2 1 2.</_></rects>
        <tilted>0</tilted></_>
      <_>
        <rects>
          <_>
            34 32 2 4 -1.</_>
          <_>
            34 34 2 2 2.</_></rects>
        <tilted>0</tilted></_>
      <_>
        <rects>
          <_>
            35 10 1 26 -1.</_>
          <_>
            35 23 1 13 2.</_></rects>
        <tilted>0</tilted></_>
      <_>
        <rects>
          <_>
            35 27 1 9 -1.</_>
          <_>
            35 30 1 3 3.</_></rects>
        <tilted>0</tilted></_>
      <_>
        <rects>
          <_>
            35 30 1 6 -1.</_>
          <_>
            35 33 1 3 2.</_></rects>
        <tilted>0</tilted></_>
      <_>
        <rects>
          <_>
            35 33 1 2 -1.</_>
          <_>
            35 34 1 1 2.</_></rects>
        <tilted>0</tilted></_></features></cascade>
</opencv_storage>
